<?xml version="1.0" encoding="UTF-8"?>
<PMML xmlns:xsi="http://www.w3.org/2001/XMLSchema-instance" version="4.0"
      xsi:schemaLocation="http://www.dmg.org/PMML-4_0 http://www.dmg.org/v4-0/pmml-4-0.xsd">
  <Header copyright="Rapid-I GmbH" description="generated by RapidMiner 5.0">
      <Application name="RapidMiner" version="5.0.010"/>
      <Timestamp>Feb 1, 2011 3:20:05 PM</Timestamp>
  </Header>
  <DataDictionary numberOfFields="6">
      <DataField dataType="double" name="hp" optype="continuous"/>
      <DataField dataType="string" name="brand" optype="categorical">
         <Value value="Volkswagen"/>
         <Value value="Audi"/>
         <Value value="Mercedes"/>
         <Value value="Porsche"/>
      </DataField>
      <DataField dataType="double" name="age" optype="continuous"/>
      <DataField dataType="string" name="gender" optype="categorical">
         <Value value="female"/>
         <Value value="male"/>
      </DataField>
      <DataField dataType="double" name="car_id" optype="continuous"/>
      <DataField dataType="string" name="risk" optype="categorical">
         <Value value="high"/>
         <Value value="low"/>
         <Value value="medium"/>
      </DataField>
  </DataDictionary>
  <TreeModel algorithmName="DecisionTree" functionName="classification"
              missingValueStrategy="lastPrediction"
              modelName="Tree"
              noTrueChildStrategy="returnLastPrediction"
              splitCharacteristic="multiSplit">
      <MiningSchema>
         <MiningField highValue="1.0" importance="1.0" invalidValueTreatment="asIs" lowValue="0.0"
                      missingValueTreatment="asIs"
                      name="hp"
                      optype="continuous"
                      usageType="active"/>
         <MiningField highValue="1.0" importance="1.0" invalidValueTreatment="asIs" lowValue="0.0"
                      missingValueTreatment="asIs"
                      name="brand"
                      optype="categorical"
                      usageType="active"/>
         <MiningField highValue="1.0" importance="1.0" invalidValueTreatment="asIs" lowValue="0.0"
                      missingValueTreatment="asIs"
                      name="age"
                      optype="continuous"
                      usageType="active"/>
         <MiningField highValue="1.0" importance="1.0" invalidValueTreatment="asIs" lowValue="0.0"
                      missingValueTreatment="asIs"
                      name="gender"
                      optype="categorical"
                      usageType="active"/>
         <MiningField highValue="1.0" importance="1.0" invalidValueTreatment="asIs" lowValue="0.0"
                      missingValueTreatment="asIs"
                      name="car_id"
                      optype="continuous"
                      usageType="supplementary"/>
         <MiningField highValue="1.0" importance="1.0" invalidValueTreatment="asIs" lowValue="0.0"
                      missingValueTreatment="asIs"
                      name="risk"
                      optype="categorical"
                      usageType="predicted"/>
      </MiningSchema>
      <Output>
         <OutputField dataType="string" feature="predictedValue" name="prediction(risk)"
                      optype="categorical"
                      targetField="risk"/>
         <OutputField dataType="double" feature="probability" name="confidence(high)"
                      optype="continuous"
                      targetField="risk"
                      value="high"/>
         <OutputField dataType="double" feature="probability" name="confidence(low)"
                      optype="continuous"
                      targetField="risk"
                      value="low"/>
         <OutputField dataType="double" feature="probability" name="confidence(medium)"
                      optype="continuous"
                      targetField="risk"
                      value="medium"/>
      </Output>
      <Targets>
         <Target field="risk" optype="categorical">
            <TargetValue value="high"/>
            <TargetValue value="low"/>
            <TargetValue value="medium"/>
         </Target>
      </Targets>
      <Node recordCount="0" score="low">
         <True/>
         <ScoreDistribution confidence="0.07769145394006659" recordCount="70" value="high"/>
         <ScoreDistribution confidence="0.6226415094339622" recordCount="561" value="low"/>
         <ScoreDistribution confidence="0.29966703662597116" recordCount="270" value="medium"/>
         <Node recordCount="0" score="medium">
            <SimplePredicate field="hp" operator="greaterThan" value="160"/>
            <ScoreDistribution confidence="0.17587939698492464" recordCount="70" value="high"/>
            <ScoreDistribution confidence="0.32160804020100503" recordCount="128" value="low"/>
            <ScoreDistribution confidence="0.5025125628140703" recordCount="200" value="medium"/>
            <Node recordCount="0" score="medium">
               <SimplePredicate field="age" operator="greaterThan" value="25.500"/>
               <ScoreDistribution confidence="0.0" recordCount="0" value="high"/>
               <ScoreDistribution confidence="0.3902439024390244" recordCount="128" value="low"/>
               <ScoreDistribution confidence="0.6097560975609756" recordCount="200" value="medium"/>
               <Node recordCount="139" score="medium">
                  <SimplePredicate field="hp" operator="greaterThan" value="340"/>
                  <ScoreDistribution confidence="0.0" recordCount="0" value="high"/>
                  <ScoreDistribution confidence="0.0" recordCount="0" value="low"/>
                  <ScoreDistribution confidence="1.0" recordCount="139" value="medium"/>
               </Node>
               <Node recordCount="0" score="low">
                  <SimplePredicate field="hp" operator="lessOrEqual" value="340"/>
                  <ScoreDistribution confidence="0.0" recordCount="0" value="high"/>
                  <ScoreDistribution confidence="0.6772486772486772" recordCount="128" value="low"/>
                  <ScoreDistribution confidence="0.32275132275132273" recordCount="61" value="medium"/>
                  <Node recordCount="0" score="medium">
                     <SimplePredicate field="age" operator="greaterThan" value="64.500"/>
                     <ScoreDistribution confidence="0.0" recordCount="0" value="high"/>
                     <ScoreDistribution confidence="0.25333333333333335" recordCount="19" value="low"/>
                     <ScoreDistribution confidence="0.7466666666666667" recordCount="56" value="medium"/>
                     <Node recordCount="56" score="medium">
                        <SimplePredicate field="hp" operator="greaterThan" value="187.500"/>
                        <ScoreDistribution confidence="0.0" recordCount="0" value="high"/>
                        <ScoreDistribution confidence="0.0" recordCount="0" value="low"/>
                        <ScoreDistribution confidence="1.0" recordCount="56" value="medium"/>
                     </Node>
                     <Node recordCount="19" score="low">
                        <SimplePredicate field="hp" operator="lessOrEqual" value="187.500"/>
                        <ScoreDistribution confidence="0.0" recordCount="0" value="high"/>
                        <ScoreDistribution confidence="1.0" recordCount="19" value="low"/>
                        <ScoreDistribution confidence="0.0" recordCount="0" value="medium"/>
                     </Node>
                  </Node>
                  <Node recordCount="0" score="low">
                     <SimplePredicate field="age" operator="lessOrEqual" value="64.500"/>
                     <ScoreDistribution confidence="0.0" recordCount="0" value="high"/>
                     <ScoreDistribution confidence="0.956140350877193" recordCount="109" value="low"/>
                     <ScoreDistribution confidence="0.043859649122807015" recordCount="5" value="medium"/>
                     <Node recordCount="38" score="low">
                        <SimplePredicate field="brand" operator="equal" value="Audi"/>
                        <ScoreDistribution confidence="0.0" recordCount="0" value="high"/>
                        <ScoreDistribution confidence="0.9736842105263158" recordCount="37" value="low"/>
                        <ScoreDistribution confidence="0.02631578947368421" recordCount="1" value="medium"/>
                     </Node>
                     <Node recordCount="0" score="low">
                        <SimplePredicate field="brand" operator="equal" value="Mercedes"/>
                        <ScoreDistribution confidence="0.0" recordCount="0" value="high"/>
                        <ScoreDistribution confidence="0.9" recordCount="36" value="low"/>
                        <ScoreDistribution confidence="0.1" recordCount="4" value="medium"/>
                        <Node recordCount="4" score="medium">
                           <SimplePredicate field="age" operator="greaterThan" value="60.500"/>
                           <ScoreDistribution confidence="0.0" recordCount="0" value="high"/>
                           <ScoreDistribution confidence="0.0" recordCount="0" value="low"/>
                           <ScoreDistribution confidence="1.0" recordCount="4" value="medium"/>
                        </Node>
                        <Node recordCount="36" score="low">
                           <SimplePredicate field="age" operator="lessOrEqual" value="60.500"/>
                           <ScoreDistribution confidence="0.0" recordCount="0" value="high"/>
                           <ScoreDistribution confidence="1.0" recordCount="36" value="low"/>
                           <ScoreDistribution confidence="0.0" recordCount="0" value="medium"/>
                        </Node>
                     </Node>
                     <Node recordCount="36" score="low">
                        <SimplePredicate field="brand" operator="equal" value="Volkswagen"/>
                        <ScoreDistribution confidence="0.0" recordCount="0" value="high"/>
                        <ScoreDistribution confidence="1.0" recordCount="36" value="low"/>
                        <ScoreDistribution confidence="0.0" recordCount="0" value="medium"/>
                     </Node>
                  </Node>
               </Node>
            </Node>
            <Node recordCount="70" score="high">
               <SimplePredicate field="age" operator="lessOrEqual" value="25.500"/>
               <ScoreDistribution confidence="1.0" recordCount="70" value="high"/>
               <ScoreDistribution confidence="0.0" recordCount="0" value="low"/>
               <ScoreDistribution confidence="0.0" recordCount="0" value="medium"/>
            </Node>
         </Node>
         <Node recordCount="0" score="low">
            <SimplePredicate field="hp" operator="lessOrEqual" value="160"/>
            <ScoreDistribution confidence="0.0" recordCount="0" value="high"/>
            <ScoreDistribution confidence="0.8608349900596421" recordCount="433" value="low"/>
            <ScoreDistribution confidence="0.13916500994035785" recordCount="70" value="medium"/>
            <Node recordCount="0" score="low">
               <SimplePredicate field="hp" operator="greaterThan" value="60"/>
               <ScoreDistribution confidence="0.0" recordCount="0" value="high"/>
               <ScoreDistribution confidence="0.8172323759791122" recordCount="313" value="low"/>
               <ScoreDistribution confidence="0.18276762402088773" recordCount="70" value="medium"/>
               <Node recordCount="313" score="low">
                  <SimplePredicate field="age" operator="greaterThan" value="25.500"/>
                  <ScoreDistribution confidence="0.0" recordCount="0" value="high"/>
                  <ScoreDistribution confidence="1.0" recordCount="313" value="low"/>
                  <ScoreDistribution confidence="0.0" recordCount="0" value="medium"/>
               </Node>
               <Node recordCount="70" score="medium">
                  <SimplePredicate field="age" operator="lessOrEqual" value="25.500"/>
                  <ScoreDistribution confidence="0.0" recordCount="0" value="high"/>
                  <ScoreDistribution confidence="0.0" recordCount="0" value="low"/>
                  <ScoreDistribution confidence="1.0" recordCount="70" value="medium"/>
               </Node>
            </Node>
            <Node recordCount="120" score="low">
               <SimplePredicate field="hp" operator="lessOrEqual" value="60"/>
               <ScoreDistribution confidence="0.0" recordCount="0" value="high"/>
               <ScoreDistribution confidence="1.0" recordCount="120" value="low"/>
               <ScoreDistribution confidence="0.0" recordCount="0" value="medium"/>
            </Node>
         </Node>
      </Node>
  </TreeModel>
</PMML>