<PMML version="4.0" xsi:schemaLocation="http://www.dmg.org/PMML-4_0 http://www.dmg.org/v4-0/pmml-4-0.xsd" xmlns:xsi="http://www.w3.org/2001/XMLSchema-instance" xmlns="http://www.dmg.org/PMML-4_0">
  <Header copyright="Copyright (c) Integral Solutions Ltd., 1994 - 2005. All rights reserved.">
    <Application name="Clementine" version="10.0"/>
    <Annotation>Exported with PMML extensions for use with SPSS SmartScore</Annotation>
  </Header>
  <DataDictionary numberOfFields="6">
    <DataField dataType="double" name="sepal length" optype="continuous">
      <Extension name="storageType" value="numeric"/>
    </DataField>
    <DataField dataType="double" name="sepal width" optype="continuous">
      <Extension name="storageType" value="numeric"/>
    </DataField>
    <DataField dataType="double" name="petal length" optype="continuous">
      <Extension name="storageType" value="numeric"/>
    </DataField>
    <DataField dataType="double" name="petal width" optype="continuous">
      <Extension name="storageType" value="numeric"/>
    </DataField>
    <DataField dataType="string" name="$R-SPECIES" optype="categorical">
      <Extension name="storageType" value="string"/>
      <Value property="valid" value="Iris-setosa"/>
      <Value property="valid" value="Iris-versicolor"/>
      <Value property="valid" value="Iris-virginica"/>
    </DataField>
    <DataField dataType="double" name="$RC-SPECIES" optype="continuous">
      <Extension name="storageType" value="numeric"/>
    </DataField>
  </DataDictionary>
  <TreeModel algorithmName="C&amp;R Tree" functionName="classification" modelName="IRIS_TREE">
    <Extension name="missingValueStrategy" value="defaultChild"/>
    <Extension name="missingValuePenalty" value="0.9"/>
    <MiningSchema>
      <MiningField name="sepal length" usageType="active"/>
      <MiningField name="sepal width" usageType="active"/>
      <MiningField name="petal length" usageType="active"/>
      <MiningField name="petal width" usageType="active"/>
      <MiningField name="$R-SPECIES" usageType="predicted"/>
      <MiningField name="$RC-SPECIES" usageType="supplementary"/>
    </MiningSchema>
    <Node id="0" recordCount="150" score="Iris-setosa">
      <Extension name="defaultChild" value="1"/>
      <Extension name="nrCorrect" value="49.666666666666664"/>
      <True/>
      <ScoreDistribution recordCount="50" value="Iris-setosa">
        <Extension name="confidence" value="0.333333333333333"/>
      </ScoreDistribution>
      <ScoreDistribution recordCount="50" value="Iris-versicolor">
        <Extension name="confidence" value="0.333333333333333"/>
      </ScoreDistribution>
      <ScoreDistribution recordCount="50" value="Iris-virginica">
        <Extension name="confidence" value="0.333333333333333"/>
      </ScoreDistribution>
      <Node id="1" recordCount="50" score="Iris-setosa">
        <Extension name="nrCorrect" value="51"/>
        <CompoundPredicate booleanOperator="surrogate">
          <SimplePredicate field="petal length" operator="lessOrEqual" value="2.45"/>
          <SimplePredicate field="petal width" operator="lessOrEqual" value="0.8"/>
          <SimplePredicate field="sepal length" operator="lessOrEqual" value="5.45"/>
          <SimplePredicate field="sepal width" operator="greaterThan" value="3.35"/>
          <False/>
        </CompoundPredicate>
        <ScoreDistribution recordCount="50" value="Iris-setosa">
          <Extension name="confidence" value="0.962264150943396"/>
        </ScoreDistribution>
        <ScoreDistribution recordCount="0" value="Iris-versicolor">
          <Extension name="confidence" value="0"/>
        </ScoreDistribution>
        <ScoreDistribution recordCount="0" value="Iris-virginica">
          <Extension name="confidence" value="0"/>
        </ScoreDistribution>
      </Node>
      <Node id="2" recordCount="100" score="Iris-versicolor">
        <Extension name="defaultChild" value="0"/>
        <Extension name="nrCorrect" value="50"/>
        <CompoundPredicate booleanOperator="surrogate">
          <SimplePredicate field="petal length" operator="greaterThan" value="2.45"/>
          <SimplePredicate field="petal width" operator="greaterThan" value="0.8"/>
          <SimplePredicate field="sepal length" operator="greaterThan" value="5.45"/>
          <SimplePredicate field="sepal width" operator="lessOrEqual" value="3.35"/>
          <True/>
        </CompoundPredicate>
        <ScoreDistribution recordCount="0" value="Iris-setosa">
          <Extension name="confidence" value="0"/>
        </ScoreDistribution>
        <ScoreDistribution recordCount="50" value="Iris-versicolor">
          <Extension name="confidence" value="0.495145631067961"/>
        </ScoreDistribution>
        <ScoreDistribution recordCount="50" value="Iris-virginica">
          <Extension name="confidence" value="0.495145631067961"/>
        </ScoreDistribution>
        <Node id="3" recordCount="54" score="Iris-versicolor">
          <Extension name="defaultChild" value="0"/>
          <Extension name="nrCorrect" value="49.81481481481482"/>
          <CompoundPredicate booleanOperator="surrogate">
            <SimplePredicate field="petal width" operator="lessOrEqual" value="1.75"/>
            <SimplePredicate field="petal length" operator="lessOrEqual" value="4.75"/>
            <SimplePredicate field="sepal length" operator="lessOrEqual" value="6.15"/>
            <SimplePredicate field="sepal width" operator="lessOrEqual" value="2.95"/>
            <True/>
          </CompoundPredicate>
          <ScoreDistribution recordCount="0" value="Iris-setosa">
            <Extension name="confidence" value="0"/>
          </ScoreDistribution>
          <ScoreDistribution recordCount="49" value="Iris-versicolor">
            <Extension name="confidence" value="0.87719298245614"/>
          </ScoreDistribution>
          <ScoreDistribution recordCount="5" value="Iris-virginica">
            <Extension name="confidence" value="0.105263157894737"/>
          </ScoreDistribution>
          <Node id="4" recordCount="48" score="Iris-versicolor">
            <Extension name="nrCorrect" value="47.95833333333333"/>
            <CompoundPredicate booleanOperator="surrogate">
              <SimplePredicate field="petal length" operator="lessOrEqual" value="4.95"/>
              <SimplePredicate field="sepal length" operator="lessOrEqual" value="7.1"/>
              <True/>
            </CompoundPredicate>
            <ScoreDistribution recordCount="0" value="Iris-setosa">
              <Extension name="confidence" value="0"/>
            </ScoreDistribution>
            <ScoreDistribution recordCount="47" value="Iris-versicolor">
              <Extension name="confidence" value="0.941176470588235"/>
            </ScoreDistribution>
            <ScoreDistribution recordCount="1" value="Iris-virginica">
              <Extension name="confidence" value="0.03921568627451"/>
            </ScoreDistribution>
          </Node>
          <Node id="5" recordCount="6" score="Iris-virginica">
            <Extension name="defaultChild" value="0"/>
            <Extension name="nrCorrect" value="4.333333333333333"/>
            <CompoundPredicate booleanOperator="surrogate">
              <SimplePredicate field="petal length" operator="greaterThan" value="4.95"/>
              <SimplePredicate field="sepal length" operator="greaterThan" value="7.1"/>
              <False/>
            </CompoundPredicate>
            <ScoreDistribution recordCount="0" value="Iris-setosa">
              <Extension name="confidence" value="0"/>
            </ScoreDistribution>
            <ScoreDistribution recordCount="2" value="Iris-versicolor">
              <Extension name="confidence" value="0.333333333333333"/>
            </ScoreDistribution>
            <ScoreDistribution recordCount="4" value="Iris-virginica">
              <Extension name="confidence" value="0.555555555555556"/>
            </ScoreDistribution>
            <Node id="6" recordCount="3" score="Iris-virginica">
              <Extension name="nrCorrect" value="4"/>
              <CompoundPredicate booleanOperator="surrogate">
                <SimplePredicate field="petal width" operator="lessOrEqual" value="1.55"/>
                <SimplePredicate field="sepal width" operator="lessOrEqual" value="2.65"/>
                <SimplePredicate field="sepal length" operator="lessOrEqual" value="6.5"/>
                <SimplePredicate field="petal length" operator="lessOrEqual" value="5.7"/>
                <True/>
              </CompoundPredicate>
              <ScoreDistribution recordCount="0" value="Iris-setosa">
                <Extension name="confidence" value="0"/>
              </ScoreDistribution>
              <ScoreDistribution recordCount="0" value="Iris-versicolor">
                <Extension name="confidence" value="0"/>
              </ScoreDistribution>
              <ScoreDistribution recordCount="3" value="Iris-virginica">
                <Extension name="confidence" value="0.666666666666667"/>
              </ScoreDistribution>
            </Node>
            <Node id="7" recordCount="3" score="Iris-versicolor">
              <Extension name="nrCorrect" value="2.333333333333333"/>
              <CompoundPredicate booleanOperator="surrogate">
                <SimplePredicate field="petal width" operator="greaterThan" value="1.55"/>
                <SimplePredicate field="sepal width" operator="greaterThan" value="2.65"/>
                <SimplePredicate field="sepal length" operator="greaterThan" value="6.5"/>
                <SimplePredicate field="petal length" operator="greaterThan" value="5.7"/>
                <False/>
              </CompoundPredicate>
              <ScoreDistribution recordCount="0" value="Iris-setosa">
                <Extension name="confidence" value="0"/>
              </ScoreDistribution>
              <ScoreDistribution recordCount="2" value="Iris-versicolor">
                <Extension name="confidence" value="0.5"/>
              </ScoreDistribution>
              <ScoreDistribution recordCount="1" value="Iris-virginica">
                <Extension name="confidence" value="0.333333333333333"/>
              </ScoreDistribution>
            </Node>
          </Node>
        </Node>
        <Node id="8" recordCount="46" score="Iris-virginica">
          <Extension name="nrCorrect" value="45.95652173913044"/>
          <CompoundPredicate booleanOperator="surrogate">
            <SimplePredicate field="petal width" operator="greaterThan" value="1.75"/>
            <SimplePredicate field="petal length" operator="greaterThan" value="4.75"/>
            <SimplePredicate field="sepal length" operator="greaterThan" value="6.15"/>
            <SimplePredicate field="sepal width" operator="greaterThan" value="2.95"/>
            <False/>
          </CompoundPredicate>
          <ScoreDistribution recordCount="0" value="Iris-setosa">
            <Extension name="confidence" value="0"/>
          </ScoreDistribution>
          <ScoreDistribution recordCount="1" value="Iris-versicolor">
            <Extension name="confidence" value="0.040816326530612"/>
          </ScoreDistribution>
          <ScoreDistribution recordCount="45" value="Iris-virginica">
            <Extension name="confidence" value="0.938775510204082"/>
          </ScoreDistribution>
        </Node>
      </Node>
    </Node>
  </TreeModel>
</PMML>